[ 0.00000000e+00  0.00000000e+00  0.00000000e+00  0.00000000e+00
  0.00000000e+00  0.00000000e+00  0.00000000e+00  0.00000000e+00
  0.00000000e+00  0.00000000e+00  0.00000000e+00  0.00000000e+00
  0.00000000e+00  0.00000000e+00  0.00000000e+00  0.00000000e+00
  0.00000000e+00  0.00000000e+00  0.00000000e+00  0.00000000e+00
  0.00000000e+00 -2.12028966e-04 -1.09822923e-04  0.00000000e+00
  0.00000000e+00  0.00000000e+00  0.00000000e+00  0.00000000e+00
 -3.21851871e-04  0.00000000e+00  0.00000000e+00  0.00000000e+00
  0.00000000e+00  0.00000000e+00  0.00000000e+00 -2.11260635e-06
 -6.07989425e-07 -3.01435276e-07 -2.77969487e-07 -5.55938975e-07
  0.00000000e+00 -1.72288974e-04 -1.81026798e-06  0.00000000e+00
  0.00000000e+00  0.00000000e+00  0.00000000e+00  0.00000000e+00
  0.00000000e+00  0.00000000e+00  0.00000000e+00 -1.45517755e-02
 -1.99650388e-03 -1.25582080e-02  0.00000000e+00  0.00000000e+00
  0.00000000e+00  0.00000000e+00  0.00000000e+00  0.00000000e+00
  0.00000000e+00  0.00000000e+00  0.00000000e+00 -9.93940149e-04
  0.00000000e+00  0.00000000e+00 -9.93940149e-04  0.00000000e+00
  0.00000000e+00 -5.98008180e-03 -2.98975338e-03 -5.41438900e-03
 -8.51577954e-03 -2.09291446e-03 -3.31313393e-04  0.00000000e+00
 -1.19601636e-02 -8.70628961e-04 -9.03477425e-03 -1.65656696e-04
 -2.63038152e-03 -6.62626786e-04  0.00000000e+00 -1.33964030e-03
 -1.51169830e-03 -5.48965987e-04 -3.65326811e-04 -2.07250712e-04
 -3.13624292e-04 -1.10401512e-02 -8.71769921e-05 -7.64523070e-03
 -1.50944330e-03 -1.25174740e-04 -8.65601716e-04  0.00000000e+00
  0.00000000e+00 -9.99949634e-04  0.00000000e+00 -9.99572235e-04
 -5.94250609e-03  0.00000000e+00  0.00000000e+00  0.00000000e+00
  0.00000000e+00  0.00000000e+00  0.00000000e+00  0.00000000e+00
  0.00000000e+00  0.00000000e+00  0.00000000e+00  0.00000000e+00
  0.00000000e+00  0.00000000e+00  0.00000000e+00  0.00000000e+00
  0.00000000e+00 -4.90880277e-03 -2.89334549e-03 -3.64743598e-03
 -3.67328825e-03 -1.03738728e-03  0.00000000e+00  0.00000000e+00
 -9.63645545e-03 -1.69025089e-04 -4.92925053e-03  3.73621824e-07
 -1.25832440e-03 -1.66595377e-04 -9.82505319e-07 -8.96292454e-04
 -7.21999075e-04 -7.00682027e-05 -6.53094400e-05 -4.27536197e-05
 -6.50230213e-06 -8.73842527e-03 -8.40651245e-05 -1.53983645e-03
 -1.23812714e-04 -6.16701787e-05 -1.37303886e-06 -8.09757116e-09
 -9.99949276e-04  0.00000000e+00 -9.96859016e-04 -1.46146081e-02
 -1.99479590e-03 -1.35378877e-02 -9.97938159e-04  0.00000000e+00
  0.00000000e+00  0.00000000e+00  0.00000000e+00  0.00000000e+00
  0.00000000e+00  0.00000000e+00  0.00000000e+00  0.00000000e+00
  0.00000000e+00  0.00000000e+00  0.00000000e+00  0.00000000e+00
  0.00000000e+00 -6.39776745e-03 -2.93498401e-03 -5.37163620e-03
 -7.98677213e-03 -2.42245786e-03  0.00000000e+00 -4.99982772e-04
 -1.19210861e-02  0.00000000e+00 -9.18975466e-03 -8.74954608e-04
 -3.11425777e-03 -3.33659745e-04 -1.79887811e-04 -2.37908022e-03
 -2.28329389e-03 -1.15513934e-03 -2.07597078e-04 -1.21131375e-04
 -6.37819052e-05 -1.09481892e-02 -4.83788572e-05 -7.30656441e-03
 -7.18289803e-04 -3.34643268e-04 -5.49153152e-06 -3.71399517e-05
 -9.99978840e-04  0.00000000e+00 -1.99604695e-03 -1.45258154e-02
  2.63788400e-04 -1.35292520e-02 -9.91956054e-04  0.00000000e+00
  0.00000000e+00  0.00000000e+00 -9.93966012e-04  0.00000000e+00
  0.00000000e+00  0.00000000e+00  0.00000000e+00  0.00000000e+00
  0.00000000e+00 -1.07383758e-03  0.00000000e+00  0.00000000e+00
  0.00000000e+00 -6.06477472e-03 -3.32164674e-03 -5.57493249e-03
 -8.49708878e-03 -2.83395236e-03 -1.65326014e-04 -4.97002837e-04
 -1.12551673e-02 -5.82575234e-04 -9.38583691e-03 -4.97232620e-04
 -4.22522846e-03 -8.27654835e-04 -1.81028560e-04 -2.40499574e-03
 -2.47432721e-03 -1.43917675e-03 -4.43492153e-04 -2.73862211e-04
 -2.14550285e-04 -1.03335731e-02 -1.03356511e-03 -8.61284331e-03
 -1.46396815e-03 -5.75456451e-04 -5.08249688e-04 -3.69358896e-05
 -9.99978006e-04 -9.97565253e-04  0.00000000e+00 -1.45305243e-02
 -1.99446665e-03 -1.35335684e-02  0.00000000e+00  0.00000000e+00
  0.00000000e+00  0.00000000e+00  0.00000000e+00  0.00000000e+00
  0.00000000e+00  0.00000000e+00  0.00000000e+00 -8.39717700e-05
  0.00000000e+00  0.00000000e+00 -7.89020573e-05  0.00000000e+00
 -7.81299849e-05 -6.50214289e-03 -3.33297872e-03 -5.29658582e-03
 -7.93885073e-03 -2.44882265e-03 -2.65388671e-05 -2.32000218e-04
 -1.21299044e-02 -3.32318634e-04 -9.28219892e-03 -5.31216801e-05
 -3.01381422e-03 -7.99978197e-04 -1.66584087e-04 -2.66170515e-03
 -1.84281261e-03 -5.37060208e-04 -1.92468146e-04 -8.45037242e-05
 -6.92537805e-05 -1.11410227e-02 -9.92148917e-05 -7.44408325e-03
 -6.80191335e-04 -2.05113053e-04 -3.27648581e-05 -6.06294225e-06
 -9.99970019e-04 -9.90879474e-04  0.00000000e+00 -1.45454418e-02
 -9.99205029e-04 -1.25527773e-02 -4.91354785e-06  0.00000000e+00
 -7.78958610e-05  0.00000000e+00  0.00000000e+00  0.00000000e+00
  0.00000000e+00  0.00000000e+00  0.00000000e+00  0.00000000e+00
  0.00000000e+00 -9.94847882e-04  0.00000000e+00  0.00000000e+00
  0.00000000e+00 -6.17373591e-03 -3.49791673e-03 -5.60465879e-03
 -8.01584762e-03 -2.60270178e-03 -3.44756133e-04 -5.36844441e-04
 -1.14730971e-02 -4.97448095e-04 -9.40280295e-03 -3.57896295e-04
 -2.96189914e-03 -8.94740705e-04 -1.18857734e-03 -3.60295746e-03
 -2.76123095e-03 -1.45093463e-03 -6.69584971e-04 -5.44214714e-04
 -2.20973491e-04 -1.05347395e-02 -9.20310085e-04 -8.34846304e-03
 -1.43945707e-03 -2.08005583e-04 -5.52851175e-04 -1.97947579e-04]